digraph Tree {
node [shape=box] ;
0 [label="certificate <= 0.5\nentropy = 0.8415\nsamples = 100\nvalue = [73, 27]"] ;
1 [label="entropy = 0.0\nsamples = 4\nvalue = [0, 4]"] ;
0 -> 1 [labeldistance=2.5, labelangle=45, headlabel="True"] ;
2 [label="siblings <= 0.5\nentropy = 0.7943\nsamples = 96\nvalue = [73, 23]"] ;
0 -> 2 [labeldistance=2.5, labelangle=-45, headlabel="False"] ;
3 [label="Education-level <= 1.5\nentropy = 0.9321\nsamples = 46\nvalue = [30, 16]"] ;
2 -> 3 ;
4 [label="certificate <= 2.5\nentropy = 0.9911\nsamples = 36\nvalue = [20, 16]"] ;
3 -> 4 ;
5 [label="entropy = 0.0\nsamples = 3\nvalue = [0, 3]"] ;
4 -> 5 ;
6 [label="Peducation-level <= 1.5\nentropy = 0.9673\nsamples = 33\nvalue = [20, 13]"] ;
4 -> 6 ;
7 [label="internship <= 1.5\nentropy = 0.9812\nsamples = 31\nvalue = [18, 13]"] ;
6 -> 7 ;
8 [label="age <= 0.5\nentropy = 0.9666\nsamples = 28\nvalue = [17, 11]"] ;
7 -> 8 ;
9 [label="Peducation-level <= 0.5\nentropy = 0.874\nsamples = 17\nvalue = [12, 5]"] ;
8 -> 9 ;
10 [label="internship <= 0.5\nentropy = 0.9403\nsamples = 14\nvalue = [9, 5]"] ;
9 -> 10 ;
11 [label="gender <= 0.5\nentropy = 0.9799\nsamples = 12\nvalue = [7, 5]"] ;
10 -> 11 ;
12 [label="Education-level <= 0.5\nentropy = 0.8113\nsamples = 4\nvalue = [1, 3]"] ;
11 -> 12 ;
13 [label="entropy = 0.0\nsamples = 1\nvalue = [0, 1]"] ;
12 -> 13 ;
14 [label="entropy = 0.9183\nsamples = 3\nvalue = [1, 2]"] ;
12 -> 14 ;
15 [label="Education-level <= 0.5\nentropy = 0.8113\nsamples = 8\nvalue = [6, 2]"] ;
11 -> 15 ;
16 [label="entropy = 0.0\nsamples = 2\nvalue = [2, 0]"] ;
15 -> 16 ;
17 [label="entropy = 0.9183\nsamples = 6\nvalue = [4, 2]"] ;
15 -> 17 ;
18 [label="entropy = 0.0\nsamples = 2\nvalue = [2, 0]"] ;
10 -> 18 ;
19 [label="entropy = 0.0\nsamples = 3\nvalue = [3, 0]"] ;
9 -> 19 ;
20 [label="gender <= 0.5\nentropy = 0.994\nsamples = 11\nvalue = [5, 6]"] ;
8 -> 20 ;
21 [label="Peducation-level <= 0.5\nentropy = 0.7219\nsamples = 5\nvalue = [4, 1]"] ;
20 -> 21 ;
22 [label="entropy = 0.0\nsamples = 4\nvalue = [4, 0]"] ;
21 -> 22 ;
23 [label="entropy = 0.0\nsamples = 1\nvalue = [0, 1]"] ;
21 -> 23 ;
24 [label="Peducation-level <= 0.5\nentropy = 0.65\nsamples = 6\nvalue = [1, 5]"] ;
20 -> 24 ;
25 [label="entropy = 0.0\nsamples = 5\nvalue = [0, 5]"] ;
24 -> 25 ;
26 [label="entropy = 0.0\nsamples = 1\nvalue = [1, 0]"] ;
24 -> 26 ;
27 [label="Education-level <= 0.5\nentropy = 0.9183\nsamples = 3\nvalue = [1, 2]"] ;
7 -> 27 ;
28 [label="entropy = 0.0\nsamples = 2\nvalue = [0, 2]"] ;
27 -> 28 ;
29 [label="entropy = 0.0\nsamples = 1\nvalue = [1, 0]"] ;
27 -> 29 ;
30 [label="entropy = 0.0\nsamples = 2\nvalue = [2, 0]"] ;
6 -> 30 ;
31 [label="entropy = 0.0\nsamples = 10\nvalue = [10, 0]"] ;
3 -> 31 ;
32 [label="internship <= 0.5\nentropy = 0.5842\nsamples = 50\nvalue = [43, 7]"] ;
2 -> 32 ;
33 [label="Peducation-level <= 0.5\nentropy = 0.4138\nsamples = 36\nvalue = [33, 3]"] ;
32 -> 33 ;
34 [label="entropy = 0.0\nsamples = 13\nvalue = [13, 0]"] ;
33 -> 34 ;
35 [label="Education-level <= 0.5\nentropy = 0.5586\nsamples = 23\nvalue = [20, 3]"] ;
33 -> 35 ;
36 [label="entropy = 0.0\nsamples = 7\nvalue = [7, 0]"] ;
35 -> 36 ;
37 [label="Peducation-level <= 1.5\nentropy = 0.6962\nsamples = 16\nvalue = [13, 3]"] ;
35 -> 37 ;
38 [label="age <= 0.5\nentropy = 0.6194\nsamples = 13\nvalue = [11, 2]"] ;
37 -> 38 ;
39 [label="entropy = 0.0\nsamples = 6\nvalue = [6, 0]"] ;
38 -> 39 ;
40 [label="Education-level <= 1.5\nentropy = 0.8631\nsamples = 7\nvalue = [5, 2]"] ;
38 -> 40 ;
41 [label="gender <= 0.5\nentropy = 0.65\nsamples = 6\nvalue = [5, 1]"] ;
40 -> 41 ;
42 [label="entropy = 1.0\nsamples = 2\nvalue = [1, 1]"] ;
41 -> 42 ;
43 [label="entropy = 0.0\nsamples = 4\nvalue = [4, 0]"] ;
41 -> 43 ;
44 [label="entropy = 0.0\nsamples = 1\nvalue = [0, 1]"] ;
40 -> 44 ;
45 [label="age <= 0.5\nentropy = 0.9183\nsamples = 3\nvalue = [2, 1]"] ;
37 -> 45 ;
46 [label="entropy = 1.0\nsamples = 2\nvalue = [1, 1]"] ;
45 -> 46 ;
47 [label="entropy = 0.0\nsamples = 1\nvalue = [1, 0]"] ;
45 -> 47 ;
48 [label="Peducation-level <= 1.5\nentropy = 0.8631\nsamples = 14\nvalue = [10, 4]"] ;
32 -> 48 ;
49 [label="gender <= 0.5\nentropy = 0.8905\nsamples = 13\nvalue = [9, 4]"] ;
48 -> 49 ;
50 [label="certificate <= 2.0\nentropy = 1.0\nsamples = 4\nvalue = [2, 2]"] ;
49 -> 50 ;
51 [label="entropy = 0.0\nsamples = 1\nvalue = [1, 0]"] ;
50 -> 51 ;
52 [label="Education-level <= 0.5\nentropy = 0.9183\nsamples = 3\nvalue = [1, 2]"] ;
50 -> 52 ;
53 [label="Peducation-level <= 0.5\nentropy = 1.0\nsamples = 2\nvalue = [1, 1]"] ;
52 -> 53 ;
54 [label="entropy = 0.0\nsamples = 1\nvalue = [1, 0]"] ;
53 -> 54 ;
55 [label="entropy = 0.0\nsamples = 1\nvalue = [0, 1]"] ;
53 -> 55 ;
56 [label="entropy = 0.0\nsamples = 1\nvalue = [0, 1]"] ;
52 -> 56 ;
57 [label="certificate <= 2.5\nentropy = 0.7642\nsamples = 9\nvalue = [7, 2]"] ;
49 -> 57 ;
58 [label="internship <= 1.5\nentropy = 1.0\nsamples = 4\nvalue = [2, 2]"] ;
57 -> 58 ;
59 [label="certificate <= 1.5\nentropy = 0.9183\nsamples = 3\nvalue = [1, 2]"] ;
58 -> 59 ;
60 [label="entropy = 0.0\nsamples = 1\nvalue = [0, 1]"] ;
59 -> 60 ;
61 [label="Peducation-level <= 0.5\nentropy = 1.0\nsamples = 2\nvalue = [1, 1]"] ;
59 -> 61 ;
62 [label="entropy = 0.0\nsamples = 1\nvalue = [0, 1]"] ;
61 -> 62 ;
63 [label="entropy = 0.0\nsamples = 1\nvalue = [1, 0]"] ;
61 -> 63 ;
64 [label="entropy = 0.0\nsamples = 1\nvalue = [1, 0]"] ;
58 -> 64 ;
65 [label="entropy = 0.0\nsamples = 5\nvalue = [5, 0]"] ;
57 -> 65 ;
66 [label="entropy = 0.0\nsamples = 1\nvalue = [1, 0]"] ;
48 -> 66 ;
}